<?xml version="1.0"?>
<opencv_storage>
<cascade>
  <stageType>BOOST</stageType>
  <featureType>HAAR</featureType>
  <height>20</height>
  <width>20</width>
  <stageParams>
    <boostType>GAB</boostType>
    <minHitRate>9.9500000476837158e-01</minHitRate>
    <maxFalseAlarm>3.0000001192092896e-01</maxFalseAlarm>
    <weightTrimRate>9.4999999999999996e-01</weightTrimRate>
    <maxDepth>1</maxDepth>
    <maxWeakCount>100</maxWeakCount></stageParams>
  <featureParams>
    <maxCatCount>0</maxCatCount>
    <featSize>1</featSize>
    <mode>BASIC</mode></featureParams>
  <stageNum>8</stageNum>
  <stages>
    <!-- stage 0 -->
    <_>
      <maxWeakCount>1</maxWeakCount>
      <stageThreshold>9.5924526453018188e-01</stageThreshold>
      <weakClassifiers>
        <_>
          <internalNodes>
            0 -1 9 5.0056058913469315e-02</internalNodes>
          <leafValues>
            -9.9686276912689209e-01 9.5924526453018188e-01</leafValues></_></weakClassifiers></_>
    <!-- stage 1 -->
    <_>
      <maxWeakCount>1</maxWeakCount>
      <stageThreshold>9.5503419637680054e-01</stageThreshold>
      <weakClassifiers>
        <_>
          <internalNodes>
            0 -1 11 -3.1006161123514175e-02</internalNodes>
          <leafValues>
            9.5503419637680054e-01 -1.</leafValues></_></weakClassifiers></_>
    <!-- stage 2 -->
    <_>
      <maxWeakCount>2</maxWeakCount>
      <stageThreshold>-1.4618010818958282e-01</stageThreshold>
      <weakClassifiers>
        <_>
          <internalNodes>
            0 -1 3 -4.0175683796405792e-02</internalNodes>
          <leafValues>
            9.0047848224639893e-01 -9.8534029722213745e-01</leafValues></_>
        <_>
          <internalNodes>
            0 -1 8 3.3369448035955429e-02</internalNodes>
          <leafValues>
            -9.7477710247039795e-01 8.3916020393371582e-01</leafValues></_></weakClassifiers></_>
    <!-- stage 3 -->
    <_>
      <maxWeakCount>2</maxWeakCount>
      <stageThreshold>-1.4596243202686310e-01</stageThreshold>
      <weakClassifiers>
        <_>
          <internalNodes>
            0 -1 10 -2.8580931946635246e-02</internalNodes>
          <leafValues>
            8.6055397987365723e-01 -9.4543546438217163e-01</leafValues></_>
        <_>
          <internalNodes>
            0 -1 4 -8.3577362820506096e-03</internalNodes>
          <leafValues>
            7.9947304725646973e-01 -9.8425906896591187e-01</leafValues></_></weakClassifiers></_>
    <!-- stage 4 -->
    <_>
      <maxWeakCount>2</maxWeakCount>
      <stageThreshold>-2.7622866630554199e-01</stageThreshold>
      <weakClassifiers>
        <_>
          <internalNodes>
            0 -1 1 6.6291810944676399e-03</internalNodes>
          <leafValues>
            -9.1786903142929077e-01 7.5250226259231567e-01</leafValues></_>
        <_>
          <internalNodes>
            0 -1 6 -7.7280988916754723e-03</internalNodes>
          <leafValues>
            6.4164036512374878e-01 -9.7297334671020508e-01</leafValues></_></weakClassifiers></_>
    <!-- stage 5 -->
    <_>
      <maxWeakCount>1</maxWeakCount>
      <stageThreshold>6.6444075107574463e-01</stageThreshold>
      <weakClassifiers>
        <_>
          <internalNodes>
            0 -1 12 -1.1252487078309059e-02</internalNodes>
          <leafValues>
            -9.9251872301101685e-01 6.6444075107574463e-01</leafValues></_></weakClassifiers></_>
    <!-- stage 6 -->
    <_>
      <maxWeakCount>2</maxWeakCount>
      <stageThreshold>-2.5736302137374878e-01</stageThreshold>
      <weakClassifiers>
        <_>
          <internalNodes>
            0 -1 0 -6.0486726462841034e-02</internalNodes>
          <leafValues>
            8.4927535057067871e-01 -9.1088080406188965e-01</leafValues></_>
        <_>
          <internalNodes>
            0 -1 2 -3.0091155320405960e-02</internalNodes>
          <leafValues>
            6.5351778268814087e-01 -9.9807977676391602e-01</leafValues></_></weakClassifiers></_>
    <!-- stage 7 -->
    <_>
      <maxWeakCount>3</maxWeakCount>
      <stageThreshold>6.7560434341430664e-01</stageThreshold>
      <weakClassifiers>
        <_>
          <internalNodes>
            0 -1 5 -5.7296000421047211e-02</internalNodes>
          <leafValues>
            7.5224417448043823e-01 -9.4582390785217285e-01</leafValues></_>
        <_>
          <internalNodes>
            0 -1 13 -1.6510640271008015e-03</internalNodes>
          <leafValues>
            -9.6713823080062866e-01 7.3455393314361572e-01</leafValues></_>
        <_>
          <internalNodes>
            0 -1 7 -1.6024744510650635e-01</internalNodes>
          <leafValues>
            8.9049845933914185e-01 -7.8533077239990234e-01</leafValues></_></weakClassifiers></_></stages>
  <features>
    <_>
      <rects>
        <_>
          0 3 6 3 -1.</_>
        <_>
          2 3 2 3 2.</_></rects>
      <tilted>0</tilted></_>
    <_>
      <rects>
        <_>
          0 15 4 4 -1.</_>
        <_>
          0 15 2 2 2.</_>
        <_>
          2 17 2 2 2.</_></rects>
      <tilted>0</tilted></_>
    <_>
      <rects>
        <_>
          0 15 3 3 -1.</_>
        <_>
          0 16 3 1 2.</_></rects>
      <tilted>0</tilted></_>
    <_>
      <rects>
        <_>
          0 17 10 2 -1.</_>
        <_>
          5 17 5 2 2.</_></rects>
      <tilted>0</tilted></_>
    <_>
      <rects>
        <_>
          1 2 4 2 -1.</_>
        <_>
          3 2 2 2 2.</_></rects>
      <tilted>0</tilted></_>
    <_>
      <rects>
        <_>
          3 0 3 6 -1.</_>
        <_>
          3 2 3 2 2.</_></rects>
      <tilted>0</tilted></_>
    <_>
      <rects>
        <_>
          3 1 8 1 -1.</_>
        <_>
          7 1 4 1 2.</_></rects>
      <tilted>0</tilted></_>
    <_>
      <rects>
        <_>
          3 5 14 15 -1.</_>
        <_>
          10 5 7 15 2.</_></rects>
      <tilted>0</tilted></_>
    <_>
      <rects>
        <_>
          13 16 4 4 -1.</_>
        <_>
          13 18 4 2 2.</_></rects>
      <tilted>0</tilted></_>
    <_>
      <rects>
        <_>
          14 15 6 3 -1.</_>
        <_>
          17 15 3 3 2.</_></rects>
      <tilted>0</tilted></_>
    <_>
      <rects>
        <_>
          15 2 4 8 -1.</_>
        <_>
          15 2 2 4 2.</_>
        <_>
          17 6 2 4 2.</_></rects>
      <tilted>0</tilted></_>
    <_>
      <rects>
        <_>
          16 0 2 6 -1.</_>
        <_>
          16 3 2 3 2.</_></rects>
      <tilted>0</tilted></_>
    <_>
      <rects>
        <_>
          16 12 2 3 -1.</_>
        <_>
          16 13 2 1 2.</_></rects>
      <tilted>0</tilted></_>
    <_>
      <rects>
        <_>
          18 0 2 4 -1.</_>
        <_>
          18 2 2 2 2.</_></rects>
      <tilted>0</tilted></_></features></cascade>
</opencv_storage>
